digraph Tree {
node [shape=box] ;
0 [label="X[13] <= 0.5\ngini = 0.2693\nsamples = 1029\nvalue = [864, 165]"] ;
1 [label="X[18] <= 2.5\ngini = 0.1813\nsamples = 724\nvalue = [651, 73]"] ;
0 -> 1 [labeldistance=2.5, labelangle=45, headlabel="True"] ;
2 [label="X[6] <= 1.5\ngini = 0.4137\nsamples = 65\nvalue = [46, 19]"] ;
1 -> 2 ;
3 [label="gini = 0.0\nsamples = 4\nvalue = [0, 4]"] ;
2 -> 3 ;
4 [label="X[19] <= 0.5\ngini = 0.3709\nsamples = 61\nvalue = [46, 15]"] ;
2 -> 4 ;
5 [label="gini = 0.0\nsamples = 3\nvalue = [0, 3]"] ;
4 -> 5 ;
6 [label="X[11] <= 24646.0\ngini = 0.3282\nsamples = 58\nvalue = [46, 12]"] ;
4 -> 6 ;
7 [label="X[3] <= 4.5\ngini = 0.2604\nsamples = 52\nvalue = [44, 8]"] ;
6 -> 7 ;
8 [label="X[20] <= 2.5\ngini = 0.2368\nsamples = 51\nvalue = [44, 7]"] ;
7 -> 8 ;
9 [label="gini = 0.426\nsamples = 13\nvalue = [9, 4]"] ;
8 -> 9 ;
10 [label="gini = 0.1454\nsamples = 38\nvalue = [35, 3]"] ;
8 -> 10 ;
11 [label="gini = 0.0\nsamples = 1\nvalue = [0, 1]"] ;
7 -> 11 ;
12 [label="X[11] <= 25922.5\ngini = 0.4444\nsamples = 6\nvalue = [2, 4]"] ;
6 -> 12 ;
13 [label="gini = 0.0\nsamples = 3\nvalue = [0, 3]"] ;
12 -> 13 ;
14 [label="X[16] <= 1.5\ngini = 0.4444\nsamples = 3\nvalue = [2, 1]"] ;
12 -> 14 ;
15 [label="gini = 0.0\nsamples = 1\nvalue = [0, 1]"] ;
14 -> 15 ;
16 [label="gini = 0.0\nsamples = 2\nvalue = [2, 0]"] ;
14 -> 16 ;
17 [label="X[8] <= 1.5\ngini = 0.1505\nsamples = 659\nvalue = [605, 54]"] ;
1 -> 17 ;
18 [label="X[17] <= 0.5\ngini = 0.2649\nsamples = 140\nvalue = [118, 22]"] ;
17 -> 18 ;
19 [label="X[16] <= 3.5\ngini = 0.4082\nsamples = 56\nvalue = [40, 16]"] ;
18 -> 19 ;
20 [label="X[31] <= 0.5\ngini = 0.4898\nsamples = 35\nvalue = [20, 15]"] ;
19 -> 20 ;
21 [label="X[24] <= 3.5\ngini = 0.4688\nsamples = 32\nvalue = [20, 12]"] ;
20 -> 21 ;
22 [label="gini = 0.4734\nsamples = 13\nvalue = [5, 8]"] ;
21 -> 22 ;
23 [label="gini = 0.3324\nsamples = 19\nvalue = [15, 4]"] ;
21 -> 23 ;
24 [label="gini = 0.0\nsamples = 3\nvalue = [0, 3]"] ;
20 -> 24 ;
25 [label="X[1] <= 0.5\ngini = 0.0907\nsamples = 21\nvalue = [20, 1]"] ;
19 -> 25 ;
26 [label="gini = 0.0\nsamples = 1\nvalue = [0, 1]"] ;
25 -> 26 ;
27 [label="gini = 0.0\nsamples = 20\nvalue = [20, 0]"] ;
25 -> 27 ;
28 [label="X[20] <= 1.5\ngini = 0.1327\nsamples = 84\nvalue = [78, 6]"] ;
18 -> 28 ;
29 [label="X[3] <= 3.0\ngini = 0.5\nsamples = 4\nvalue = [2, 2]"] ;
28 -> 29 ;
30 [label="gini = 0.0\nsamples = 2\nvalue = [0, 2]"] ;
29 -> 30 ;
31 [label="gini = 0.0\nsamples = 2\nvalue = [2, 0]"] ;
29 -> 31 ;
32 [label="X[11] <= 9457.0\ngini = 0.095\nsamples = 80\nvalue = [76, 4]"] ;
28 -> 32 ;
33 [label="X[12] <= 8.5\ngini = 0.2604\nsamples = 26\nvalue = [22, 4]"] ;
32 -> 33 ;
34 [label="gini = 0.2112\nsamples = 25\nvalue = [22, 3]"] ;
33 -> 34 ;
35 [label="gini = 0.0\nsamples = 1\nvalue = [0, 1]"] ;
33 -> 35 ;
36 [label="gini = 0.0\nsamples = 54\nvalue = [54, 0]"] ;
32 -> 36 ;
37 [label="X[21] <= 29.0\ngini = 0.1157\nsamples = 519\nvalue = [487, 32]"] ;
17 -> 37 ;
38 [label="X[16] <= 1.5\ngini = 0.1099\nsamples = 514\nvalue = [484, 30]"] ;
37 -> 38 ;
39 [label="X[22] <= 4.5\ngini = 0.2041\nsamples = 104\nvalue = [92, 12]"] ;
38 -> 39 ;
40 [label="X[31] <= 0.5\ngini = 0.2956\nsamples = 61\nvalue = [50, 11]"] ;
39 -> 40 ;
41 [label="gini = 0.2413\nsamples = 57\nvalue = [49, 8]"] ;
40 -> 41 ;
42 [label="gini = 0.375\nsamples = 4\nvalue = [1, 3]"] ;
40 -> 42 ;
43 [label="X[18] <= 27.0\ngini = 0.0454\nsamples = 43\nvalue = [42, 1]"] ;
39 -> 43 ;
44 [label="gini = 0.0\nsamples = 41\nvalue = [41, 0]"] ;
43 -> 44 ;
45 [label="gini = 0.5\nsamples = 2\nvalue = [1, 1]"] ;
43 -> 45 ;
46 [label="X[6] <= 1.5\ngini = 0.084\nsamples = 410\nvalue = [392, 18]"] ;
38 -> 46 ;
47 [label="X[26] <= 0.5\ngini = 0.2778\nsamples = 24\nvalue = [20, 4]"] ;
46 -> 47 ;
48 [label="gini = 0.0997\nsamples = 19\nvalue = [18, 1]"] ;
47 -> 48 ;
49 [label="gini = 0.48\nsamples = 5\nvalue = [2, 3]"] ;
47 -> 49 ;
50 [label="X[2] <= 0.5\ngini = 0.0699\nsamples = 386\nvalue = [372, 14]"] ;
46 -> 50 ;
51 [label="gini = 0.0396\nsamples = 297\nvalue = [291, 6]"] ;
50 -> 51 ;
52 [label="gini = 0.1636\nsamples = 89\nvalue = [81, 8]"] ;
50 -> 52 ;
53 [label="X[8] <= 3.5\ngini = 0.48\nsamples = 5\nvalue = [3, 2]"] ;
37 -> 53 ;
54 [label="gini = 0.0\nsamples = 3\nvalue = [3, 0]"] ;
53 -> 54 ;
55 [label="gini = 0.0\nsamples = 2\nvalue = [0, 2]"] ;
53 -> 55 ;
56 [label="X[7] <= 1.5\ngini = 0.4213\nsamples = 305\nvalue = [213, 92]"] ;
0 -> 56 [labeldistance=2.5, labelangle=-45, headlabel="False"] ;
57 [label="X[17] <= 0.5\ngini = 0.4981\nsamples = 115\nvalue = [54, 61]"] ;
56 -> 57 ;
58 [label="X[21] <= 1.5\ngini = 0.4483\nsamples = 56\nvalue = [19, 37]"] ;
57 -> 58 ;
59 [label="gini = 0.0\nsamples = 15\nvalue = [0, 15]"] ;
58 -> 59 ;
60 [label="X[2] <= 0.5\ngini = 0.4973\nsamples = 41\nvalue = [19, 22]"] ;
58 -> 60 ;
61 [label="X[20] <= 1.5\ngini = 0.4922\nsamples = 32\nvalue = [18, 14]"] ;
60 -> 61 ;
62 [label="gini = 0.0\nsamples = 3\nvalue = [0, 3]"] ;
61 -> 62 ;
63 [label="X[29] <= 0.5\ngini = 0.4709\nsamples = 29\nvalue = [18, 11]"] ;
61 -> 63 ;
64 [label="gini = 0.5\nsamples = 20\nvalue = [10, 10]"] ;
63 -> 64 ;
65 [label="gini = 0.1975\nsamples = 9\nvalue = [8, 1]"] ;
63 -> 65 ;
66 [label="X[30] <= 0.5\ngini = 0.1975\nsamples = 9\nvalue = [1, 8]"] ;
60 -> 66 ;
67 [label="gini = 0.0\nsamples = 8\nvalue = [0, 8]"] ;
66 -> 67 ;
68 [label="gini = 0.0\nsamples = 1\nvalue = [1, 0]"] ;
66 -> 68 ;
69 [label="X[25] <= 0.5\ngini = 0.4826\nsamples = 59\nvalue = [35, 24]"] ;
57 -> 69 ;
70 [label="X[19] <= 4.0\ngini = 0.375\nsamples = 8\nvalue = [2, 6]"] ;
69 -> 70 ;
71 [label="X[21] <= 1.5\ngini = 0.2449\nsamples = 7\nvalue = [1, 6]"] ;
70 -> 71 ;
72 [label="X[11] <= 18604.0\ngini = 0.5\nsamples = 2\nvalue = [1, 1]"] ;
71 -> 72 ;
73 [label="gini = 0.0\nsamples = 1\nvalue = [1, 0]"] ;
72 -> 73 ;
74 [label="gini = 0.0\nsamples = 1\nvalue = [0, 1]"] ;
72 -> 74 ;
75 [label="gini = 0.0\nsamples = 5\nvalue = [0, 5]"] ;
71 -> 75 ;
76 [label="gini = 0.0\nsamples = 1\nvalue = [1, 0]"] ;
70 -> 76 ;
77 [label="X[19] <= 2.5\ngini = 0.4567\nsamples = 51\nvalue = [33, 18]"] ;
69 -> 77 ;
78 [label="X[21] <= 4.5\ngini = 0.5\nsamples = 28\nvalue = [14, 14]"] ;
77 -> 78 ;
79 [label="X[22] <= 0.5\ngini = 0.4654\nsamples = 19\nvalue = [12, 7]"] ;
78 -> 79 ;
80 [label="gini = 0.4082\nsamples = 7\nvalue = [2, 5]"] ;
79 -> 80 ;
81 [label="gini = 0.2778\nsamples = 12\nvalue = [10, 2]"] ;
79 -> 81 ;
82 [label="X[12] <= 0.5\ngini = 0.3457\nsamples = 9\nvalue = [2, 7]"] ;
78 -> 82 ;
83 [label="gini = 0.0\nsamples = 2\nvalue = [2, 0]"] ;
82 -> 83 ;
84 [label="gini = 0.0\nsamples = 7\nvalue = [0, 7]"] ;
82 -> 84 ;
85 [label="X[21] <= 0.5\ngini = 0.2873\nsamples = 23\nvalue = [19, 4]"] ;
77 -> 85 ;
86 [label="gini = 0.0\nsamples = 1\nvalue = [0, 1]"] ;
85 -> 86 ;
87 [label="X[14] <= 14.5\ngini = 0.2355\nsamples = 22\nvalue = [19, 3]"] ;
85 -> 87 ;
88 [label="gini = 0.0\nsamples = 14\nvalue = [14, 0]"] ;
87 -> 88 ;
89 [label="gini = 0.4688\nsamples = 8\nvalue = [5, 3]"] ;
87 -> 89 ;
90 [label="X[38] <= 0.5\ngini = 0.2731\nsamples = 190\nvalue = [159, 31]"] ;
56 -> 90 ;
91 [label="X[18] <= 38.5\ngini = 0.1528\nsamples = 120\nvalue = [110, 10]"] ;
90 -> 91 ;
92 [label="X[3] <= 1.5\ngini = 0.1398\nsamples = 119\nvalue = [110, 9]"] ;
91 -> 92 ;
93 [label="X[21] <= 8.5\ngini = 0.426\nsamples = 13\nvalue = [9, 4]"] ;
92 -> 93 ;
94 [label="gini = 0.0\nsamples = 4\nvalue = [0, 4]"] ;
93 -> 94 ;
95 [label="gini = 0.0\nsamples = 9\nvalue = [9, 0]"] ;
93 -> 95 ;
96 [label="X[34] <= 0.5\ngini = 0.0899\nsamples = 106\nvalue = [101, 5]"] ;
92 -> 96 ;
97 [label="X[12] <= 8.5\ngini = 0.0435\nsamples = 90\nvalue = [88, 2]"] ;
96 -> 97 ;
98 [label="gini = 0.023\nsamples = 86\nvalue = [85, 1]"] ;
97 -> 98 ;
99 [label="gini = 0.375\nsamples = 4\nvalue = [3, 1]"] ;
97 -> 99 ;
100 [label="X[4] <= 1.5\ngini = 0.3047\nsamples = 16\nvalue = [13, 3]"] ;
96 -> 100 ;
101 [label="gini = 0.0\nsamples = 2\nvalue = [0, 2]"] ;
100 -> 101 ;
102 [label="gini = 0.1327\nsamples = 14\nvalue = [13, 1]"] ;
100 -> 102 ;
103 [label="gini = 0.0\nsamples = 1\nvalue = [0, 1]"] ;
91 -> 103 ;
104 [label="X[9] <= 0.5\ngini = 0.42\nsamples = 70\nvalue = [49, 21]"] ;
90 -> 104 ;
105 [label="X[23] <= 1.5\ngini = 0.4717\nsamples = 21\nvalue = [8, 13]"] ;
104 -> 105 ;
106 [label="X[20] <= 2.5\ngini = 0.4898\nsamples = 14\nvalue = [8, 6]"] ;
105 -> 106 ;
107 [label="gini = 0.0\nsamples = 3\nvalue = [0, 3]"] ;
106 -> 107 ;
108 [label="X[18] <= 9.5\ngini = 0.3967\nsamples = 11\nvalue = [8, 3]"] ;
106 -> 108 ;
109 [label="gini = 0.5\nsamples = 6\nvalue = [3, 3]"] ;
108 -> 109 ;
110 [label="gini = 0.0\nsamples = 5\nvalue = [5, 0]"] ;
108 -> 110 ;
111 [label="gini = 0.0\nsamples = 7\nvalue = [0, 7]"] ;
105 -> 111 ;
112 [label="X[21] <= 4.5\ngini = 0.2732\nsamples = 49\nvalue = [41, 8]"] ;
104 -> 112 ;
113 [label="X[23] <= 1.5\ngini = 0.48\nsamples = 15\nvalue = [9, 6]"] ;
112 -> 113 ;
114 [label="X[16] <= 2.0\ngini = 0.32\nsamples = 10\nvalue = [8, 2]"] ;
113 -> 114 ;
115 [label="gini = 0.4444\nsamples = 3\nvalue = [1, 2]"] ;
114 -> 115 ;
116 [label="gini = 0.0\nsamples = 7\nvalue = [7, 0]"] ;
114 -> 116 ;
117 [label="X[1] <= 0.5\ngini = 0.32\nsamples = 5\nvalue = [1, 4]"] ;
113 -> 117 ;
118 [label="gini = 0.0\nsamples = 1\nvalue = [1, 0]"] ;
117 -> 118 ;
119 [label="gini = 0.0\nsamples = 4\nvalue = [0, 4]"] ;
117 -> 119 ;
120 [label="X[19] <= 5.5\ngini = 0.1107\nsamples = 34\nvalue = [32, 2]"] ;
112 -> 120 ;
121 [label="X[4] <= 1.5\ngini = 0.0588\nsamples = 33\nvalue = [32, 1]"] ;
120 -> 121 ;
122 [label="gini = 0.375\nsamples = 4\nvalue = [3, 1]"] ;
121 -> 122 ;
123 [label="gini = 0.0\nsamples = 29\nvalue = [29, 0]"] ;
121 -> 123 ;
124 [label="gini = 0.0\nsamples = 1\nvalue = [0, 1]"] ;
120 -> 124 ;
}